digraph Tree {
node [shape=box, fontname="helvetica"] ;
edge [fontname="helvetica"] ;
0 [label="X[3] <= -0.213\nentropy = 2.14\nsamples = 149\nvalue = [51, 53, 13, 7, 6, 19]"] ;
1 [label="X[4] <= -0.152\nentropy = 1.837\nsamples = 9\nvalue = [0, 2, 0, 4, 2, 1]"] ;
0 -> 1 [labeldistance=2.5, labelangle=45, headlabel="True"] ;
2 [label="entropy = 0.0\nsamples = 2\nvalue = [0, 0, 0, 0, 2, 0]"] ;
1 -> 2 ;
3 [label="X[1] <= 0.41\nentropy = 1.379\nsamples = 7\nvalue = [0, 2, 0, 4, 0, 1]"] ;
1 -> 3 ;
4 [label="X[2] <= 0.139\nentropy = 0.722\nsamples = 5\nvalue = [0, 0, 0, 4, 0, 1]"] ;
3 -> 4 ;
5 [label="entropy = 0.0\nsamples = 4\nvalue = [0, 0, 0, 4, 0, 0]"] ;
4 -> 5 ;
6 [label="entropy = 0.0\nsamples = 1\nvalue = [0, 0, 0, 0, 0, 1]"] ;
4 -> 6 ;
7 [label="entropy = 0.0\nsamples = 2\nvalue = [0, 2, 0, 0, 0, 0]"] ;
3 -> 7 ;
8 [label="X[2] <= -0.014\nentropy = 2.026\nsamples = 140\nvalue = [51, 51, 13, 3, 4, 18]"] ;
0 -> 8 [labeldistance=2.5, labelangle=-45, headlabel="False"] ;
9 [label="X[0] <= 0.011\nentropy = 1.918\nsamples = 78\nvalue = [38, 19, 9, 0, 4, 8]"] ;
8 -> 9 ;
10 [label="X[1] <= -0.132\nentropy = 1.429\nsamples = 63\nvalue = [38, 15, 9, 0, 0, 1]"] ;
9 -> 10 ;
11 [label="X[3] <= 0.026\nentropy = 0.811\nsamples = 8\nvalue = [2, 6, 0, 0, 0, 0]"] ;
10 -> 11 ;
12 [label="X[4] <= -0.004\nentropy = 0.592\nsamples = 7\nvalue = [1, 6, 0, 0, 0, 0]"] ;
11 -> 12 ;
13 [label="entropy = 0.0\nsamples = 1\nvalue = [1, 0, 0, 0, 0, 0]"] ;
12 -> 13 ;
14 [label="entropy = 0.0\nsamples = 6\nvalue = [0, 6, 0, 0, 0, 0]"] ;
12 -> 14 ;
15 [label="entropy = 0.0\nsamples = 1\nvalue = [1, 0, 0, 0, 0, 0]"] ;
11 -> 15 ;
16 [label="X[4] <= 0.024\nentropy = 1.36\nsamples = 55\nvalue = [36, 9, 9, 0, 0, 1]"] ;
10 -> 16 ;
17 [label="X[1] <= -0.121\nentropy = 0.811\nsamples = 24\nvalue = [18, 0, 6, 0, 0, 0]"] ;
16 -> 17 ;
18 [label="entropy = 0.0\nsamples = 2\nvalue = [0, 0, 2, 0, 0, 0]"] ;
17 -> 18 ;
19 [label="X[3] <= -0.044\nentropy = 0.684\nsamples = 22\nvalue = [18, 0, 4, 0, 0, 0]"] ;
17 -> 19 ;
20 [label="entropy = 0.0\nsamples = 6\nvalue = [6, 0, 0, 0, 0, 0]"] ;
19 -> 20 ;
21 [label="X[0] <= -0.244\nentropy = 0.811\nsamples = 16\nvalue = [12, 0, 4, 0, 0, 0]"] ;
19 -> 21 ;
22 [label="entropy = 0.0\nsamples = 4\nvalue = [4, 0, 0, 0, 0, 0]"] ;
21 -> 22 ;
23 [label="X[1] <= -0.062\nentropy = 0.918\nsamples = 12\nvalue = [8, 0, 4, 0, 0, 0]"] ;
21 -> 23 ;
24 [label="entropy = 0.0\nsamples = 2\nvalue = [0, 0, 2, 0, 0, 0]"] ;
23 -> 24 ;
25 [label="X[2] <= -0.271\nentropy = 0.722\nsamples = 10\nvalue = [8, 0, 2, 0, 0, 0]"] ;
23 -> 25 ;
26 [label="X[0] <= -0.234\nentropy = 1.0\nsamples = 4\nvalue = [2, 0, 2, 0, 0, 0]"] ;
25 -> 26 ;
27 [label="entropy = 0.0\nsamples = 2\nvalue = [0, 0, 2, 0, 0, 0]"] ;
26 -> 27 ;
28 [label="entropy = 0.0\nsamples = 2\nvalue = [2, 0, 0, 0, 0, 0]"] ;
26 -> 28 ;
29 [label="entropy = 0.0\nsamples = 6\nvalue = [6, 0, 0, 0, 0, 0]"] ;
25 -> 29 ;
30 [label="X[3] <= -0.102\nentropy = 1.459\nsamples = 31\nvalue = [18, 9, 3, 0, 0, 1]"] ;
16 -> 30 ;
31 [label="X[1] <= -0.099\nentropy = 0.439\nsamples = 11\nvalue = [10, 0, 1, 0, 0, 0]"] ;
30 -> 31 ;
32 [label="entropy = 0.0\nsamples = 1\nvalue = [0, 0, 1, 0, 0, 0]"] ;
31 -> 32 ;
33 [label="entropy = 0.0\nsamples = 10\nvalue = [10, 0, 0, 0, 0, 0]"] ;
31 -> 33 ;
34 [label="X[0] <= -0.21\nentropy = 1.595\nsamples = 20\nvalue = [8, 9, 2, 0, 0, 1]"] ;
30 -> 34 ;
35 [label="X[1] <= 0.061\nentropy = 0.946\nsamples = 11\nvalue = [4, 7, 0, 0, 0, 0]"] ;
34 -> 35 ;
36 [label="X[3] <= -0.024\nentropy = 0.764\nsamples = 9\nvalue = [2, 7, 0, 0, 0, 0]"] ;
35 -> 36 ;
37 [label="X[1] <= -0.081\nentropy = 1.0\nsamples = 4\nvalue = [2, 2, 0, 0, 0, 0]"] ;
36 -> 37 ;
38 [label="entropy = 0.0\nsamples = 1\nvalue = [1, 0, 0, 0, 0, 0]"] ;
37 -> 38 ;
39 [label="X[2] <= -0.032\nentropy = 0.918\nsamples = 3\nvalue = [1, 2, 0, 0, 0, 0]"] ;
37 -> 39 ;
40 [label="entropy = 0.0\nsamples = 2\nvalue = [0, 2, 0, 0, 0, 0]"] ;
39 -> 40 ;
41 [label="entropy = 0.0\nsamples = 1\nvalue = [1, 0, 0, 0, 0, 0]"] ;
39 -> 41 ;
42 [label="entropy = 0.0\nsamples = 5\nvalue = [0, 5, 0, 0, 0, 0]"] ;
36 -> 42 ;
43 [label="entropy = 0.0\nsamples = 2\nvalue = [2, 0, 0, 0, 0, 0]"] ;
35 -> 43 ;
44 [label="X[2] <= -0.162\nentropy = 1.837\nsamples = 9\nvalue = [4, 2, 2, 0, 0, 1]"] ;
34 -> 44 ;
45 [label="X[1] <= 0.041\nentropy = 1.585\nsamples = 3\nvalue = [1, 1, 0, 0, 0, 1]"] ;
44 -> 45 ;
46 [label="entropy = 0.0\nsamples = 1\nvalue = [1, 0, 0, 0, 0, 0]"] ;
45 -> 46 ;
47 [label="X[3] <= 0.084\nentropy = 1.0\nsamples = 2\nvalue = [0, 1, 0, 0, 0, 1]"] ;
45 -> 47 ;
48 [label="entropy = 0.0\nsamples = 1\nvalue = [0, 0, 0, 0, 0, 1]"] ;
47 -> 48 ;
49 [label="entropy = 0.0\nsamples = 1\nvalue = [0, 1, 0, 0, 0, 0]"] ;
47 -> 49 ;
50 [label="X[4] <= 0.07\nentropy = 1.459\nsamples = 6\nvalue = [3, 1, 2, 0, 0, 0]"] ;
44 -> 50 ;
51 [label="entropy = 0.0\nsamples = 3\nvalue = [3, 0, 0, 0, 0, 0]"] ;
50 -> 51 ;
52 [label="X[2] <= -0.033\nentropy = 0.918\nsamples = 3\nvalue = [0, 1, 2, 0, 0, 0]"] ;
50 -> 52 ;
53 [label="entropy = 0.0\nsamples = 2\nvalue = [0, 0, 2, 0, 0, 0]"] ;
52 -> 53 ;
54 [label="entropy = 0.0\nsamples = 1\nvalue = [0, 1, 0, 0, 0, 0]"] ;
52 -> 54 ;
55 [label="X[3] <= -0.008\nentropy = 1.53\nsamples = 15\nvalue = [0, 4, 0, 0, 4, 7]"] ;
9 -> 55 ;
56 [label="X[4] <= -0.056\nentropy = 1.0\nsamples = 8\nvalue = [0, 4, 0, 0, 4, 0]"] ;
55 -> 56 ;
57 [label="X[3] <= -0.118\nentropy = 0.722\nsamples = 5\nvalue = [0, 1, 0, 0, 4, 0]"] ;
56 -> 57 ;
58 [label="entropy = 0.0\nsamples = 1\nvalue = [0, 1, 0, 0, 0, 0]"] ;
57 -> 58 ;
59 [label="entropy = 0.0\nsamples = 4\nvalue = [0, 0, 0, 0, 4, 0]"] ;
57 -> 59 ;
60 [label="entropy = 0.0\nsamples = 3\nvalue = [0, 3, 0, 0, 0, 0]"] ;
56 -> 60 ;
61 [label="entropy = 0.0\nsamples = 7\nvalue = [0, 0, 0, 0, 0, 7]"] ;
55 -> 61 ;
62 [label="X[1] <= -0.213\nentropy = 1.856\nsamples = 62\nvalue = [13, 32, 4, 3, 0, 10]"] ;
8 -> 62 ;
63 [label="X[0] <= 0.629\nentropy = 0.65\nsamples = 12\nvalue = [0, 0, 0, 2, 0, 10]"] ;
62 -> 63 ;
64 [label="entropy = 0.0\nsamples = 2\nvalue = [0, 0, 0, 2, 0, 0]"] ;
63 -> 64 ;
65 [label="entropy = 0.0\nsamples = 10\nvalue = [0, 0, 0, 0, 0, 10]"] ;
63 -> 65 ;
66 [label="X[3] <= 0.035\nentropy = 1.322\nsamples = 50\nvalue = [13, 32, 4, 1, 0, 0]"] ;
62 -> 66 ;
67 [label="X[4] <= -0.0\nentropy = 1.161\nsamples = 31\nvalue = [13, 17, 1, 0, 0, 0]"] ;
66 -> 67 ;
68 [label="X[0] <= -0.16\nentropy = 0.779\nsamples = 13\nvalue = [10, 3, 0, 0, 0, 0]"] ;
67 -> 68 ;
69 [label="entropy = 0.0\nsamples = 8\nvalue = [8, 0, 0, 0, 0, 0]"] ;
68 -> 69 ;
70 [label="X[4] <= -0.068\nentropy = 0.971\nsamples = 5\nvalue = [2, 3, 0, 0, 0, 0]"] ;
68 -> 70 ;
71 [label="entropy = 0.0\nsamples = 3\nvalue = [0, 3, 0, 0, 0, 0]"] ;
70 -> 71 ;
72 [label="entropy = 0.0\nsamples = 2\nvalue = [2, 0, 0, 0, 0, 0]"] ;
70 -> 72 ;
73 [label="X[1] <= -0.085\nentropy = 0.944\nsamples = 18\nvalue = [3, 14, 1, 0, 0, 0]"] ;
67 -> 73 ;
74 [label="entropy = 0.0\nsamples = 13\nvalue = [0, 13, 0, 0, 0, 0]"] ;
73 -> 74 ;
75 [label="X[3] <= -0.162\nentropy = 1.371\nsamples = 5\nvalue = [3, 1, 1, 0, 0, 0]"] ;
73 -> 75 ;
76 [label="X[2] <= 0.243\nentropy = 1.0\nsamples = 2\nvalue = [0, 1, 1, 0, 0, 0]"] ;
75 -> 76 ;
77 [label="entropy = 0.0\nsamples = 1\nvalue = [0, 0, 1, 0, 0, 0]"] ;
76 -> 77 ;
78 [label="entropy = 0.0\nsamples = 1\nvalue = [0, 1, 0, 0, 0, 0]"] ;
76 -> 78 ;
79 [label="entropy = 0.0\nsamples = 3\nvalue = [3, 0, 0, 0, 0, 0]"] ;
75 -> 79 ;
80 [label="X[0] <= -0.164\nentropy = 0.913\nsamples = 19\nvalue = [0, 15, 3, 1, 0, 0]"] ;
66 -> 80 ;
81 [label="X[4] <= -0.249\nentropy = 0.371\nsamples = 14\nvalue = [0, 13, 1, 0, 0, 0]"] ;
80 -> 81 ;
82 [label="entropy = 0.0\nsamples = 1\nvalue = [0, 0, 1, 0, 0, 0]"] ;
81 -> 82 ;
83 [label="entropy = 0.0\nsamples = 13\nvalue = [0, 13, 0, 0, 0, 0]"] ;
81 -> 83 ;
84 [label="X[1] <= 0.135\nentropy = 1.522\nsamples = 5\nvalue = [0, 2, 2, 1, 0, 0]"] ;
80 -> 84 ;
85 [label="entropy = 0.0\nsamples = 2\nvalue = [0, 0, 2, 0, 0, 0]"] ;
84 -> 85 ;
86 [label="X[0] <= 0.308\nentropy = 0.918\nsamples = 3\nvalue = [0, 2, 0, 1, 0, 0]"] ;
84 -> 86 ;
87 [label="entropy = 0.0\nsamples = 1\nvalue = [0, 0, 0, 1, 0, 0]"] ;
86 -> 87 ;
88 [label="entropy = 0.0\nsamples = 2\nvalue = [0, 2, 0, 0, 0, 0]"] ;
86 -> 88 ;
}
