digraph Tree {
node [shape=box, fontname="helvetica"] ;
edge [fontname="helvetica"] ;
0 [label="X[7] <= 0.102\ngini = 0.729\nsamples = 149\nvalue = [51, 53, 13, 7, 6, 19]"] ;
1 [label="X[3] <= 0.352\ngini = 0.677\nsamples = 130\nvalue = [50, 52, 13, 6, 6, 3]"] ;
0 -> 1 [labeldistance=2.5, labelangle=45, headlabel="True"] ;
2 [label="X[2] <= 0.62\ngini = 0.597\nsamples = 82\nvalue = [46, 22, 10, 0, 2, 2]"] ;
1 -> 2 ;
3 [label="X[0] <= 0.37\ngini = 0.46\nsamples = 10\nvalue = [0, 7, 0, 0, 2, 1]"] ;
2 -> 3 ;
4 [label="X[6] <= 0.366\ngini = 0.625\nsamples = 4\nvalue = [0, 1, 0, 0, 2, 1]"] ;
3 -> 4 ;
5 [label="X[8] <= 0.196\ngini = 0.5\nsamples = 2\nvalue = [0, 1, 0, 0, 0, 1]"] ;
4 -> 5 ;
6 [label="gini = 0.0\nsamples = 1\nvalue = [0, 0, 0, 0, 0, 1]"] ;
5 -> 6 ;
7 [label="gini = 0.0\nsamples = 1\nvalue = [0, 1, 0, 0, 0, 0]"] ;
5 -> 7 ;
8 [label="gini = 0.0\nsamples = 2\nvalue = [0, 0, 0, 0, 2, 0]"] ;
4 -> 8 ;
9 [label="gini = 0.0\nsamples = 6\nvalue = [0, 6, 0, 0, 0, 0]"] ;
3 -> 9 ;
10 [label="X[0] <= 0.195\ngini = 0.529\nsamples = 72\nvalue = [46, 15, 10, 0, 0, 1]"] ;
2 -> 10 ;
11 [label="X[0] <= 0.144\ngini = 0.595\nsamples = 11\nvalue = [2, 3, 6, 0, 0, 0]"] ;
10 -> 11 ;
12 [label="gini = 0.0\nsamples = 2\nvalue = [2, 0, 0, 0, 0, 0]"] ;
11 -> 12 ;
13 [label="X[6] <= 0.233\ngini = 0.444\nsamples = 9\nvalue = [0, 3, 6, 0, 0, 0]"] ;
11 -> 13 ;
14 [label="gini = 0.0\nsamples = 2\nvalue = [0, 2, 0, 0, 0, 0]"] ;
13 -> 14 ;
15 [label="X[2] <= 0.801\ngini = 0.245\nsamples = 7\nvalue = [0, 1, 6, 0, 0, 0]"] ;
13 -> 15 ;
16 [label="gini = 0.0\nsamples = 6\nvalue = [0, 0, 6, 0, 0, 0]"] ;
15 -> 16 ;
17 [label="gini = 0.0\nsamples = 1\nvalue = [0, 1, 0, 0, 0, 0]"] ;
15 -> 17 ;
18 [label="X[2] <= 0.816\ngini = 0.436\nsamples = 61\nvalue = [44, 12, 4, 0, 0, 1]"] ;
10 -> 18 ;
19 [label="X[0] <= 0.434\ngini = 0.166\nsamples = 34\nvalue = [31, 1, 1, 0, 0, 1]"] ;
18 -> 19 ;
20 [label="X[5] <= 0.048\ngini = 0.061\nsamples = 32\nvalue = [31, 0, 1, 0, 0, 0]"] ;
19 -> 20 ;
21 [label="X[1] <= 0.581\ngini = 0.5\nsamples = 2\nvalue = [1, 0, 1, 0, 0, 0]"] ;
20 -> 21 ;
22 [label="gini = 0.0\nsamples = 1\nvalue = [0, 0, 1, 0, 0, 0]"] ;
21 -> 22 ;
23 [label="gini = 0.0\nsamples = 1\nvalue = [1, 0, 0, 0, 0, 0]"] ;
21 -> 23 ;
24 [label="gini = 0.0\nsamples = 30\nvalue = [30, 0, 0, 0, 0, 0]"] ;
20 -> 24 ;
25 [label="X[3] <= 0.204\ngini = 0.5\nsamples = 2\nvalue = [0, 1, 0, 0, 0, 1]"] ;
19 -> 25 ;
26 [label="gini = 0.0\nsamples = 1\nvalue = [0, 1, 0, 0, 0, 0]"] ;
25 -> 26 ;
27 [label="gini = 0.0\nsamples = 1\nvalue = [0, 0, 0, 0, 0, 1]"] ;
25 -> 27 ;
28 [label="X[5] <= 0.06\ngini = 0.59\nsamples = 27\nvalue = [13, 11, 3, 0, 0, 0]"] ;
18 -> 28 ;
29 [label="X[8] <= 0.52\ngini = 0.337\nsamples = 14\nvalue = [11, 0, 3, 0, 0, 0]"] ;
28 -> 29 ;
30 [label="X[0] <= 0.406\ngini = 0.26\nsamples = 13\nvalue = [11, 0, 2, 0, 0, 0]"] ;
29 -> 30 ;
31 [label="X[0] <= 0.388\ngini = 0.5\nsamples = 4\nvalue = [2, 0, 2, 0, 0, 0]"] ;
30 -> 31 ;
32 [label="gini = 0.0\nsamples = 2\nvalue = [2, 0, 0, 0, 0, 0]"] ;
31 -> 32 ;
33 [label="gini = 0.0\nsamples = 2\nvalue = [0, 0, 2, 0, 0, 0]"] ;
31 -> 33 ;
34 [label="gini = 0.0\nsamples = 9\nvalue = [9, 0, 0, 0, 0, 0]"] ;
30 -> 34 ;
35 [label="gini = 0.0\nsamples = 1\nvalue = [0, 0, 1, 0, 0, 0]"] ;
29 -> 35 ;
36 [label="X[0] <= 0.234\ngini = 0.26\nsamples = 13\nvalue = [2, 11, 0, 0, 0, 0]"] ;
28 -> 36 ;
37 [label="gini = 0.0\nsamples = 2\nvalue = [2, 0, 0, 0, 0, 0]"] ;
36 -> 37 ;
38 [label="gini = 0.0\nsamples = 11\nvalue = [0, 11, 0, 0, 0, 0]"] ;
36 -> 38 ;
39 [label="X[2] <= 0.584\ngini = 0.576\nsamples = 48\nvalue = [4, 30, 3, 6, 4, 1]"] ;
1 -> 39 ;
40 [label="X[5] <= 0.031\ngini = 0.663\nsamples = 13\nvalue = [0, 2, 0, 6, 4, 1]"] ;
39 -> 40 ;
41 [label="gini = 0.0\nsamples = 4\nvalue = [0, 0, 0, 0, 4, 0]"] ;
40 -> 41 ;
42 [label="X[1] <= 0.572\ngini = 0.494\nsamples = 9\nvalue = [0, 2, 0, 6, 0, 1]"] ;
40 -> 42 ;
43 [label="X[6] <= 0.638\ngini = 0.245\nsamples = 7\nvalue = [0, 1, 0, 6, 0, 0]"] ;
42 -> 43 ;
44 [label="gini = 0.0\nsamples = 6\nvalue = [0, 0, 0, 6, 0, 0]"] ;
43 -> 44 ;
45 [label="gini = 0.0\nsamples = 1\nvalue = [0, 1, 0, 0, 0, 0]"] ;
43 -> 45 ;
46 [label="X[0] <= 0.399\ngini = 0.5\nsamples = 2\nvalue = [0, 1, 0, 0, 0, 1]"] ;
42 -> 46 ;
47 [label="gini = 0.0\nsamples = 1\nvalue = [0, 1, 0, 0, 0, 0]"] ;
46 -> 47 ;
48 [label="gini = 0.0\nsamples = 1\nvalue = [0, 0, 0, 0, 0, 1]"] ;
46 -> 48 ;
49 [label="X[6] <= 0.289\ngini = 0.34\nsamples = 35\nvalue = [4, 28, 3, 0, 0, 0]"] ;
39 -> 49 ;
50 [label="X[1] <= 0.416\ngini = 0.264\nsamples = 33\nvalue = [4, 28, 1, 0, 0, 0]"] ;
49 -> 50 ;
51 [label="X[4] <= 0.634\ngini = 0.5\nsamples = 6\nvalue = [3, 3, 0, 0, 0, 0]"] ;
50 -> 51 ;
52 [label="gini = 0.0\nsamples = 3\nvalue = [3, 0, 0, 0, 0, 0]"] ;
51 -> 52 ;
53 [label="gini = 0.0\nsamples = 3\nvalue = [0, 3, 0, 0, 0, 0]"] ;
51 -> 53 ;
54 [label="X[6] <= 0.194\ngini = 0.14\nsamples = 27\nvalue = [1, 25, 1, 0, 0, 0]"] ;
50 -> 54 ;
55 [label="X[2] <= 0.804\ngini = 0.5\nsamples = 2\nvalue = [1, 1, 0, 0, 0, 0]"] ;
54 -> 55 ;
56 [label="gini = 0.0\nsamples = 1\nvalue = [1, 0, 0, 0, 0, 0]"] ;
55 -> 56 ;
57 [label="gini = 0.0\nsamples = 1\nvalue = [0, 1, 0, 0, 0, 0]"] ;
55 -> 57 ;
58 [label="X[4] <= 0.5\ngini = 0.077\nsamples = 25\nvalue = [0, 24, 1, 0, 0, 0]"] ;
54 -> 58 ;
59 [label="X[1] <= 0.506\ngini = 0.444\nsamples = 3\nvalue = [0, 2, 1, 0, 0, 0]"] ;
58 -> 59 ;
60 [label="gini = 0.0\nsamples = 1\nvalue = [0, 0, 1, 0, 0, 0]"] ;
59 -> 60 ;
61 [label="gini = 0.0\nsamples = 2\nvalue = [0, 2, 0, 0, 0, 0]"] ;
59 -> 61 ;
62 [label="gini = 0.0\nsamples = 22\nvalue = [0, 22, 0, 0, 0, 0]"] ;
58 -> 62 ;
63 [label="gini = 0.0\nsamples = 2\nvalue = [0, 0, 2, 0, 0, 0]"] ;
49 -> 63 ;
64 [label="X[1] <= 0.615\ngini = 0.283\nsamples = 19\nvalue = [1, 1, 0, 1, 0, 16]"] ;
0 -> 64 [labeldistance=2.5, labelangle=-45, headlabel="False"] ;
65 [label="X[2] <= 0.399\ngini = 0.5\nsamples = 2\nvalue = [1, 1, 0, 0, 0, 0]"] ;
64 -> 65 ;
66 [label="gini = 0.0\nsamples = 1\nvalue = [0, 1, 0, 0, 0, 0]"] ;
65 -> 66 ;
67 [label="gini = 0.0\nsamples = 1\nvalue = [1, 0, 0, 0, 0, 0]"] ;
65 -> 67 ;
68 [label="X[5] <= 0.253\ngini = 0.111\nsamples = 17\nvalue = [0, 0, 0, 1, 0, 16]"] ;
64 -> 68 ;
69 [label="gini = 0.0\nsamples = 16\nvalue = [0, 0, 0, 0, 0, 16]"] ;
68 -> 69 ;
70 [label="gini = 0.0\nsamples = 1\nvalue = [0, 0, 0, 1, 0, 0]"] ;
68 -> 70 ;
}
